if (!{"iland.com.ua":1,"www.iland.com.ua":1,"blog.iland.com.ua":1,"www.blog.iland.com.ua":1}[location.host]) throw Error("This font cannot be used with this domain");Cufon.registerFont({"w":1118,"face":{"font-family":"Tahoma","font-weight":400,"font-stretch":"normal","units-per-em":"2048","panose-1":"2 11 6 4 3 5 4 4 2 4","ascent":"1638","descent":"-410","x-height":"31","bbox":"-90 -1935 1922 423","underline-thickness":"130","underline-position":"-105","unicode-range":"U+0020-U+0451"},"glyphs":{" ":{"w":640},"\u00a0":{"w":640},"!":{"d":"452,-1489r-28,1079r-166,0r-30,-1079r224,0xm442,0r-204,0r0,-211r204,0r0,211","w":680},"\"":{"d":"708,-1556r-43,579r-132,0r-43,-579r218,0xm332,-1556r-43,579r-132,0r-43,-579r218,0","w":822},"#":{"d":"1348,-932r-293,0r-92,376r268,0r0,135r-303,0r-105,421r-129,0r105,-421r-270,0r-105,421r-129,0r105,-421r-258,0r0,-135r293,0r92,-376r-268,0r0,-135r303,0r105,-422r129,0r-105,422r270,0r105,-422r129,0r-105,422r258,0r0,135xm929,-934r-274,0r-94,380r274,0","w":1490},"$":{"d":"628,-731v209,40,397,109,396,351v-1,211,-192,359,-396,379r0,362r-114,0r0,-357v-147,-1,-307,-38,-408,-89r0,-202r15,0v102,76,233,129,393,143r0,-432v-129,-29,-279,-74,-336,-155v-41,-57,-65,-123,-65,-204v2,-207,190,-356,401,-369r0,-272r114,0r0,270v115,2,267,40,348,75r0,198r-15,0v-89,-60,-199,-118,-333,-128r0,430xm514,-1160v-114,10,-216,76,-212,199v4,147,72,179,212,215r0,-414xm628,-146v128,-16,207,-70,207,-208v0,-145,-75,-176,-207,-207r0,415"},"%":{"d":"455,-1517v252,0,352,169,352,441v0,275,-101,442,-352,442v-252,0,-353,-169,-353,-441v0,-274,103,-442,353,-442xm1473,-1489r-780,1489r-165,0r780,-1489r165,0xm1545,-854v252,0,352,169,352,441v0,275,-101,442,-352,442v-252,0,-353,-169,-353,-441v0,-274,103,-442,353,-442xm455,-767v158,0,174,-134,174,-309v0,-177,-15,-308,-174,-308v-158,0,-175,134,-175,309v0,177,12,308,175,308xm1545,-104v158,0,174,-134,174,-309v0,-177,-15,-308,-174,-308v-158,0,-175,134,-175,309v0,177,12,308,175,308","w":2000},"&":{"d":"1193,-909v7,211,-28,396,-105,541r357,368r-256,0r-204,-213v-119,147,-227,239,-453,244v-262,6,-468,-179,-465,-440v3,-230,134,-345,276,-434v-118,-84,-201,-153,-201,-332v0,-223,165,-338,395,-345v238,-7,432,162,363,410v-37,138,-134,219,-274,269r352,362v22,-138,19,-249,20,-430r195,0xm272,-457v-3,187,124,329,313,325v153,-3,240,-67,313,-169r-460,-471v-92,57,-164,163,-166,315xm529,-1394v-169,-8,-243,212,-152,345v38,53,89,98,155,137v117,-41,181,-128,185,-279v3,-119,-81,-198,-188,-203","w":1380},"'":{"d":"327,-1556r-43,579r-136,0r-43,-579r222,0","w":432},"(":{"d":"710,-1546v-233,219,-426,527,-426,974v0,351,120,601,272,806v50,67,103,122,154,168r0,10r-229,0v-214,-264,-373,-528,-373,-984v0,-449,158,-724,373,-984r229,0r0,10","w":784},")":{"d":"303,-1556v214,263,373,532,373,984v0,449,-159,723,-373,984r-229,0r0,-10v232,-220,426,-527,426,-974v0,-447,-196,-755,-426,-974r0,-10r229,0","w":784},"*":{"d":"1007,-887r-65,110r-327,-217r7,364r-125,0r6,-364r-325,218r-66,-110r354,-207r-354,-207r66,-110r326,219r-7,-365r125,0r-8,365r328,-218r65,110r-354,205"},"+":{"d":"1333,-572r-505,0r0,505r-166,0r0,-505r-505,0r0,-160r505,0r0,-505r166,0r0,505r505,0r0,160","w":1490},",":{"d":"500,-285r-280,655r-146,0r176,-655r250,0","w":620},"-":{"d":"654,-561r-564,0r0,-181r564,0r0,181","w":744},"\u00ad":{"d":"654,-561r-564,0r0,-181r564,0r0,181","w":744},".":{"d":"429,0r-239,0r0,-285r239,0r0,285","w":620},"\/":{"d":"728,-1556r-583,1880r-169,0r580,-1880r172,0","w":783},"0":{"d":"920,-1326v149,225,147,952,-2,1170v-83,121,-197,187,-359,187v-164,0,-284,-64,-361,-191v-77,-127,-115,-322,-115,-583v0,-269,39,-465,117,-589v77,-125,197,-187,359,-187v164,0,279,68,361,193xm559,-134v195,0,245,-156,261,-344v24,-287,44,-704,-124,-836v-66,-52,-207,-52,-274,0v-129,101,-136,331,-136,571v0,190,2,320,51,449v36,95,98,160,222,160"},"1":{"d":"226,-1286v194,-3,292,-34,307,-208r155,0r0,1342r264,0r0,152r-726,0r0,-152r270,0r0,-998r-270,0r0,-136"},"2":{"d":"522,-1520v266,0,446,152,444,410v-2,270,-145,406,-276,553v-114,128,-264,263,-394,386r732,0r0,171r-919,0r0,-209r187,-180v130,-125,340,-359,404,-479v40,-75,62,-152,62,-232v0,-162,-95,-247,-255,-247v-148,0,-267,66,-356,129r-11,0r0,-212v80,-40,258,-90,382,-90"},"3":{"d":"771,-1140v0,-149,-109,-207,-260,-207v-152,0,-270,67,-361,130r-12,0r0,-211v126,-67,386,-124,566,-72v153,45,267,145,269,339v1,167,-135,306,-275,334r0,14v179,37,307,148,304,371v-3,227,-121,371,-289,438v-187,75,-471,18,-616,-57r0,-211r14,0v107,74,323,175,503,110v118,-41,182,-135,185,-294v4,-231,-162,-280,-398,-268r0,-166v208,13,370,-60,370,-250"},"4":{"d":"1067,-512r-177,0r0,512r-192,0r0,-512r-658,0r0,-210r666,-767r184,0r0,817r177,0r0,160xm698,-672r0,-582r-502,582r502,0"},"5":{"d":"378,-918v193,-19,370,-5,480,85v97,80,155,179,153,359v-3,238,-114,392,-287,466v-180,77,-454,27,-600,-46r0,-211r14,0v98,60,223,123,379,123v193,0,290,-130,291,-333v1,-207,-126,-281,-329,-283v-95,-1,-222,20,-294,36r0,-767r817,0r0,175r-624,0r0,396"},"6":{"d":"290,-847v87,-60,175,-102,310,-104v214,-3,345,98,411,245v54,120,52,308,2,435v-49,124,-138,216,-252,267v-107,47,-259,48,-367,1v-219,-95,-309,-324,-309,-651v0,-386,114,-668,372,-800v122,-61,316,-83,465,-42r0,191r-9,0v-40,-22,-119,-41,-187,-40v-281,6,-415,207,-436,498xm480,-151v216,82,368,-85,368,-324v0,-201,-92,-313,-292,-312v-109,1,-191,36,-266,82v-17,255,22,490,190,554"},"7":{"d":"1044,-1266r-644,1266r-213,0r682,-1314r-770,0r0,-175r945,0r0,223"},"8":{"d":"662,-843v100,-78,147,-147,149,-299v2,-139,-104,-234,-253,-234v-140,0,-252,85,-248,222v5,161,112,204,236,264v43,20,81,36,116,47xm561,-115v168,0,282,-111,278,-281v-4,-155,-57,-188,-175,-256v-57,-33,-150,-64,-218,-93v-100,66,-168,166,-171,319v-3,171,120,311,286,311xm1044,-415v5,256,-222,454,-485,449v-231,-4,-385,-104,-453,-270v-21,-56,-32,-114,-32,-175v0,-187,109,-317,252,-384r0,-6v-127,-78,-213,-150,-216,-330v-4,-230,207,-392,449,-392v250,0,450,146,448,379v-2,158,-102,294,-227,351r0,6v154,76,260,164,264,372"},"9":{"d":"638,-1338v-218,-81,-368,88,-368,325v0,203,89,311,291,312v96,-1,205,-39,267,-82v18,-255,-19,-492,-190,-555xm827,-641v-95,62,-172,102,-310,104v-211,3,-342,-97,-409,-243v-54,-116,-53,-310,-4,-435v69,-171,211,-304,436,-304v257,0,384,144,450,349v59,181,53,486,2,686v-55,213,-164,365,-330,452v-114,60,-316,81,-466,40r0,-191r10,0v37,20,123,42,186,40v285,-3,419,-207,435,-498"},":":{"d":"482,-832r-239,0r0,-285r239,0r0,285xm482,0r-239,0r0,-285r239,0r0,285","w":724},";":{"d":"482,-832r-239,0r0,-285r239,0r0,285xm548,-285r-280,655r-146,0r176,-655r250,0","w":724},"\u037e":{"d":"482,-832r-239,0r0,-285r239,0r0,285xm548,-285r-280,655r-146,0r176,-655r250,0","w":724},"<":{"d":"1275,-79r-1074,-513r0,-120r1074,-513r0,178r-833,395r833,395r0,178","w":1490},"=":{"d":"1298,-782r-1106,0r0,-160r1106,0r0,160xm1298,-362r-1106,0r0,-160r1106,0r0,160","w":1490},">":{"d":"1289,-592r-1074,513r0,-178r833,-395r-833,-395r0,-178r1074,513r0,120","w":1490},"?":{"d":"471,-1519v255,0,441,141,441,380v0,289,-205,393,-386,511r0,228r-179,0r0,-305v157,-107,354,-175,361,-419v4,-151,-107,-222,-256,-224v-127,-2,-258,56,-332,103r-11,0r0,-204v84,-34,243,-70,362,-70xm542,0r-204,0r0,-211r204,0r0,211","w":970},"@":{"d":"955,-1518v492,0,788,363,784,855v-2,203,-61,376,-147,506r-421,0r-25,-116v-88,68,-132,124,-277,124v-235,0,-350,-209,-350,-482v0,-275,162,-492,396,-497v103,-2,160,29,229,66r0,-48r159,0r0,842r227,0v49,-83,70,-263,71,-389v2,-423,-224,-726,-645,-726v-392,0,-681,345,-681,738v0,420,267,744,676,739v118,0,244,-16,340,-46r0,142v-104,25,-219,35,-341,36v-477,5,-818,-381,-818,-873v0,-467,366,-871,823,-871xm908,-304v98,0,173,-53,234,-104r0,-518v-65,-33,-116,-54,-201,-54v-175,0,-254,141,-251,346v2,189,46,330,218,330","w":1862},"A":{"d":"-10,0r502,-1489r244,0r502,1489r-209,0r-135,-416r-569,0r-135,416r-200,0xm839,-585r-230,-702r-229,702r459,0","w":1228},"B":{"d":"882,-827v166,44,278,169,279,370v0,241,-153,376,-335,429v-171,51,-455,22,-675,28r0,-1489r395,0v195,3,272,-1,391,60v99,51,154,137,154,276v0,156,-93,264,-209,318r0,8xm885,-1125v4,-248,-293,-186,-536,-195r0,436r225,0v121,-1,157,-4,228,-49v60,-37,81,-97,83,-192xm955,-449v2,-223,-143,-276,-381,-270r-225,0r0,550r161,0v214,6,347,-28,419,-151v19,-33,26,-76,26,-129","w":1207},"C":{"d":"734,-144v205,0,344,-95,447,-193r15,0r0,236v-134,63,-261,130,-463,128v-334,-5,-528,-176,-618,-437v-63,-182,-66,-478,-1,-659v91,-257,283,-447,622,-447v195,0,332,56,460,126r0,239r-16,0v-106,-96,-237,-203,-446,-196v-324,11,-462,261,-462,604v0,281,97,472,284,561v55,27,115,38,178,38","w":1230},"D":{"d":"1246,-1118v105,203,103,534,-4,743v-90,178,-247,306,-450,351v-163,35,-433,21,-641,24r0,-1489v217,2,512,-10,669,31v207,56,339,170,426,340xm500,-170v405,5,619,-176,619,-576v0,-392,-215,-577,-619,-573r-151,0r0,1149r151,0","w":1389},"E":{"d":"151,0r0,-1489r931,0r0,176r-733,0r0,408r683,0r0,176r-683,0r0,553r733,0r0,176r-931,0","w":1149},"F":{"d":"1042,-1313r-693,0r0,420r664,0r0,176r-664,0r0,717r-198,0r0,-1489r891,0r0,176","w":1068},"G":{"d":"1269,-99v-142,59,-292,131,-495,128v-474,-7,-708,-292,-708,-775v0,-368,154,-608,419,-717v89,-35,186,-53,291,-53v199,-2,354,63,487,128r0,239r-17,0v-116,-104,-271,-196,-494,-196v-305,0,-484,265,-480,593v3,286,98,478,290,570v139,66,377,43,511,-8r0,-385r-344,0r0,-174r540,0r0,650","w":1367},"H":{"d":"1232,0r-198,0r0,-729r-685,0r0,729r-198,0r0,-1489r198,0r0,584r685,0r0,-584r198,0r0,1489","w":1383},"I":{"d":"671,0r-578,0r0,-152r190,0r0,-1185r-190,0r0,-152r578,0r0,152r-190,0r0,1185r190,0r0,152","w":764},"J":{"d":"9,-197v69,11,149,48,236,48v157,0,244,-47,261,-179v6,-39,8,-83,8,-134r0,-869r-315,0r0,-158r513,0r0,1102v3,262,-178,410,-440,408v-68,0,-205,-15,-263,-29r0,-189","w":853},"K":{"d":"1236,0r-257,0r-543,-693r-87,98r0,595r-198,0r0,-1489r198,0r0,685r610,-685r241,0r-616,665","w":1204},"L":{"d":"1014,0r-863,0r0,-1489r198,0r0,1313r665,0r0,176","w":1019},"M":{"d":"1427,0r-198,0r0,-1283r-388,873r-120,0r-385,-873r0,1283r-185,0r0,-1489r270,0r372,829r359,-829r275,0r0,1489","w":1578},"N":{"d":"1216,0r-222,0r-658,-1284r0,1284r-185,0r0,-1489r281,0r599,1179r0,-1179r185,0r0,1489","w":1367},"O":{"d":"724,-1520v337,0,525,181,612,445v61,186,63,470,1,658v-86,267,-276,448,-613,448v-338,0,-525,-182,-612,-447v-61,-186,-60,-475,0,-658v88,-262,274,-446,612,-446xm725,-140v308,0,456,-257,452,-604v-3,-275,-82,-479,-265,-566v-105,-52,-271,-51,-376,-2v-178,86,-265,296,-264,568v0,195,41,345,123,448v82,104,192,156,330,156","w":1449},"P":{"d":"1044,-1252v58,105,64,276,12,396v-85,198,-252,302,-539,301r-168,0r0,555r-198,0r0,-1489v279,7,596,-32,763,93v54,40,99,86,130,144xm885,-1035v0,-215,-145,-288,-372,-284r-164,0r0,595v186,0,365,7,452,-89v53,-58,84,-118,84,-222","w":1129},"Q":{"d":"1189,219v47,0,141,-22,172,-35r27,0r0,180v-68,18,-149,28,-232,28v-227,0,-377,-139,-386,-362v-365,10,-566,-166,-658,-446v-61,-186,-60,-475,0,-658v88,-262,274,-446,612,-446v337,0,526,180,612,445v31,97,47,207,47,331v0,371,-154,640,-422,732v15,144,64,231,228,231xm725,-139v308,0,456,-258,452,-605v-3,-275,-82,-479,-265,-566v-105,-52,-271,-51,-376,-2v-178,86,-265,296,-264,568v0,195,41,345,123,449v82,104,192,156,330,156","w":1449},"R":{"d":"1083,-1085v0,232,-132,372,-309,437r530,648r-257,0r-472,-592r-226,0r0,592r-198,0r0,-1489r384,0v254,-8,411,55,503,208v31,52,45,118,45,196xm523,-757v227,7,355,-92,353,-313v-2,-188,-130,-253,-331,-249r-196,0r0,562r174,0","w":1271},"S":{"d":"602,-1345v-166,0,-306,82,-308,234v-4,263,306,246,500,311v181,61,296,163,296,376v0,215,-135,355,-298,416v-60,23,-135,35,-226,35v-213,2,-348,-50,-489,-116r0,-248r14,0v108,104,276,189,461,193v194,4,332,-80,332,-249v0,-134,-69,-196,-184,-228v-186,-53,-402,-74,-515,-200v-58,-64,-97,-149,-97,-269v0,-252,233,-426,501,-426v174,0,322,38,443,96r0,237r-15,0v-88,-81,-248,-162,-415,-162","w":1141},"T":{"d":"499,0r0,-1313r-500,0r0,-176r1198,0r0,176r-500,0r0,1313r-198,0","w":1196},"U":{"d":"671,-138v250,0,341,-154,341,-417r0,-934r198,0r0,929v6,297,-96,479,-308,557v-62,23,-140,34,-231,34v-374,0,-538,-204,-538,-591r0,-929r198,0r0,929v-7,267,84,422,340,422","w":1343},"V":{"d":"1230,-1489r-512,1489r-214,0r-512,-1489r212,0r412,1236r412,-1236r202,0","w":1222},"W":{"d":"1821,-1489r-374,1489r-223,0r-303,-1236r-296,1236r-218,0r-381,-1489r203,0r300,1238r298,-1238r201,0r301,1250r298,-1250r194,0","w":1847},"X":{"d":"1181,0r-227,0r-363,-596r-369,596r-214,0r473,-745r-459,-744r226,0r356,585r361,-585r215,0r-466,734","w":1189},"Y":{"d":"1193,-1489r-503,830r0,659r-198,0r0,-638r-503,-851r220,0r384,657r390,-657r210,0","w":1180},"Z":{"d":"1100,0r-1040,0r0,-184r797,-1129r-761,0r0,-176r984,0r0,179r-806,1134r826,0r0,176","w":1145},"[":{"d":"686,392r-520,0r0,-1948r520,0r0,143r-345,0r0,1662r345,0r0,143","w":784},"\\":{"d":"804,324r-169,0r-583,-1880r172,0","w":783},"]":{"d":"618,392r-520,0r0,-143r345,0r0,-1662r-345,0r0,-143r520,0r0,1948","w":784},"^":{"d":"1357,-684r-198,0r-415,-625r-414,627r-197,0r549,-807r126,0","w":1490},"_":{"d":"1134,300r-1150,0r0,-130r1150,0r0,130"},"`":{"d":"670,-1302r-149,0r-273,-374r243,0"},"a":{"d":"464,-142v132,0,219,-68,296,-133r0,-310v-87,9,-262,21,-335,46v-93,30,-174,83,-173,203v0,131,78,194,212,194xm490,-1144v288,0,456,98,457,380r0,764r-187,0r0,-119v-103,77,-181,156,-363,150v-209,-7,-339,-144,-339,-355v0,-362,349,-391,702,-411v39,-334,-398,-256,-600,-167r-11,0r0,-191v77,-21,233,-51,341,-51","w":1075},"b":{"d":"571,-138v222,0,311,-167,308,-424v-2,-233,-50,-407,-257,-407v-120,0,-226,65,-298,127r0,640v85,40,138,64,247,64xm666,-1148v281,0,407,256,407,571v0,326,-174,605,-466,608v-128,1,-200,-35,-283,-83r-12,52r-176,0r0,-1556r188,0r0,556v88,-76,188,-148,342,-148","w":1132},"c":{"d":"577,-138v136,0,246,-65,322,-136r11,0r0,211v-100,45,-188,90,-330,88v-352,-6,-521,-220,-521,-582v0,-283,110,-460,309,-547v173,-74,409,-28,542,47r0,211r-11,0v-76,-63,-184,-134,-322,-134v-215,0,-323,183,-323,423v0,240,102,419,323,419","w":945},"d":{"d":"350,-1106v145,-75,341,-42,458,34r0,-484r188,0r0,1556r-188,0r0,-114v-92,77,-170,145,-334,145v-306,0,-415,-257,-415,-581v0,-280,105,-462,291,-556xm518,-148v119,0,216,-61,290,-124r0,-644v-83,-40,-139,-60,-246,-60v-216,0,-311,179,-309,422v2,233,55,406,265,406","w":1132},"e":{"d":"619,-138v160,0,283,-67,373,-135r11,0r0,205r-82,32v-99,37,-170,61,-300,62v-358,2,-562,-215,-562,-578v0,-405,303,-702,701,-566v176,60,266,228,264,477r0,102r-774,0v-3,249,130,401,369,401xm841,-683v-6,-194,-79,-309,-276,-310v-155,-1,-239,80,-287,185v-16,36,-24,78,-28,125r591,0","w":1078},"f":{"d":"531,-1566v67,0,137,9,193,18r0,172v-43,-6,-113,-26,-166,-26v-184,0,-225,91,-220,285r311,0r0,156r-305,0r0,961r-188,0r0,-961r-127,0r0,-156r127,0v-11,-281,112,-449,375,-449","w":652},"g":{"d":"518,-193v114,0,221,-51,290,-110r0,-613v-80,-38,-147,-63,-248,-63v-211,0,-310,172,-307,406v2,224,58,380,265,380xm493,423v-115,0,-235,-21,-327,-48r0,-196r10,0v91,35,205,75,332,76v206,1,304,-99,300,-305r0,-98v-97,81,-167,129,-332,129v-283,0,-421,-234,-417,-550v4,-270,110,-451,293,-540v148,-71,344,-37,456,40r11,-48r177,0r0,990v0,367,-149,547,-503,550","w":1132},"h":{"d":"663,-1148v236,0,351,169,351,423r0,725r-188,0r0,-636v0,-187,-17,-341,-212,-333v-118,5,-213,72,-290,135r0,834r-188,0r0,-1556r188,0r0,563v96,-83,187,-155,339,-155","w":1142},"i":{"d":"328,0r-188,0r0,-1117r188,0r0,1117xm341,-1304r-214,0r0,-195r214,0r0,195","w":468},"j":{"d":"-90,243v112,24,263,18,306,-63v30,-57,36,-130,37,-225r0,-916r-202,0r0,-156r390,0r0,1149v3,249,-142,391,-385,391v-47,0,-102,-5,-146,-12r0,-168xm442,-1304r-214,0r0,-195r214,0r0,195","w":577},"k":{"d":"1062,0r-247,0r-417,-539r-74,72r0,467r-188,0r0,-1556r188,0r0,911r442,-472r234,0r-459,467","w":1020},"l":{"d":"328,0r-188,0r0,-1556r188,0r0,1556","w":468},"m":{"d":"922,-955v97,-103,177,-193,342,-193v237,0,328,164,328,413r0,735r-188,0r0,-646v-1,-176,-6,-333,-188,-323v-110,6,-188,70,-262,138r4,96r0,735r-188,0r0,-646v-1,-176,-6,-332,-188,-323v-106,5,-190,74,-258,135r0,834r-188,0r0,-1117r188,0r0,124v86,-82,162,-155,306,-155v151,0,247,70,292,193","w":1720},"n":{"d":"663,-1148v236,0,351,169,351,423r0,725r-188,0r0,-636v0,-187,-17,-341,-212,-333v-118,5,-213,72,-290,135r0,834r-188,0r0,-1117r188,0r0,124v96,-83,187,-155,339,-155","w":1142},"o":{"d":"557,-1148v321,0,498,244,498,590v0,348,-176,587,-498,589v-324,2,-500,-249,-500,-589v0,-346,180,-590,500,-590xm557,-131v221,0,304,-176,304,-427v0,-255,-80,-428,-304,-428v-224,0,-306,173,-306,428v0,249,85,427,306,427","w":1112},"p":{"d":"666,-1148v280,0,407,255,407,560v0,333,-173,610,-471,610v-124,0,-194,-29,-278,-78r0,468r-188,0r0,-1529r188,0r0,117v85,-74,193,-148,342,-148xm571,-147v218,0,311,-176,308,-420v-2,-226,-53,-402,-259,-402v-125,0,-219,64,-296,127r0,633v89,42,134,62,247,62","w":1132},"q":{"d":"351,-1108v148,-73,344,-38,457,39r12,-48r176,0r0,1529r-188,0r0,-534v-96,85,-177,144,-333,144v-284,0,-420,-258,-416,-577v4,-275,108,-462,292,-553xm516,-157v122,0,219,-60,292,-123r0,-636v-83,-40,-140,-63,-247,-63v-218,0,-310,174,-308,415v1,230,58,407,263,407","w":1132},"r":{"d":"324,-951v124,-104,211,-184,404,-160r0,196v-170,-33,-314,27,-404,122r0,793r-188,0r0,-1117r188,0r0,166","w":738},"s":{"d":"485,-985v-114,-1,-221,46,-221,157v0,144,130,155,254,182v112,25,237,59,294,128v65,76,85,228,34,332v-67,139,-197,213,-408,213v-141,0,-282,-48,-371,-94r0,-211r10,0v104,83,268,174,464,136v64,-13,103,-37,127,-76v27,-45,17,-147,-22,-179v-63,-53,-228,-74,-330,-104v-151,-44,-244,-131,-244,-302v0,-214,186,-341,417,-341v124,0,265,36,345,81r0,201r-10,0v-84,-67,-202,-122,-339,-123","w":914},"t":{"d":"682,-10v-61,17,-137,32,-208,32v-220,0,-326,-127,-326,-364r0,-619r-127,0r0,-156r127,0r0,-321r188,0r0,321r346,0r0,156r-346,0r0,531v2,104,-6,152,26,217v25,51,77,70,158,70v51,0,121,-22,151,-36r11,0r0,169","w":685},"u":{"d":"528,-148v113,-3,220,-74,290,-135r0,-834r188,0r0,1117r-188,0r0,-124v-102,84,-180,155,-339,155v-244,0,-350,-166,-351,-423r0,-725r188,0r0,636v-1,195,15,338,212,333","w":1142},"v":{"d":"1014,-1117r-421,1117r-169,0r-418,-1117r203,0r306,862r303,-862r196,0","w":1020},"w":{"d":"1490,-1117r-283,1117r-174,0r-273,-861r-271,861r-173,0r-286,-1117r196,0r197,865r265,-865r155,0r272,865r186,-865r189,0","w":1520},"x":{"d":"1004,0r-231,0r-271,-422r-279,422r-213,0r388,-554r-384,-563r231,0r269,418r276,-418r214,0r-386,550","w":1014},"y":{"d":"1014,-1117r-601,1529r-201,0r200,-466r-406,-1063r203,0r305,827r304,-827r196,0","w":1020},"z":{"d":"870,0r-821,0r0,-139r584,-823r-560,0r0,-155r786,0r0,134r-587,826r598,0r0,157","w":910},"{":{"d":"567,-12v-3,176,64,270,239,266r80,0r0,138r-116,0v-242,0,-385,-139,-382,-387r0,-149v2,-226,-87,-373,-328,-360r0,-156v240,12,330,-133,328,-360r0,-149v-3,-248,140,-387,382,-387r116,0r0,138r-80,0v-175,-4,-242,90,-239,266r0,175v2,219,-120,316,-271,383r0,24v150,67,273,165,271,383r0,175","w":984},"|":{"d":"475,392r-167,0r0,-1948r167,0r0,1948","w":783},"}":{"d":"596,-1020v-2,226,87,373,328,360r0,156v-240,-12,-330,133,-328,360r0,149v3,248,-140,387,-382,387r-116,0r0,-138r80,0v175,4,242,-90,239,-266r0,-175v-2,-219,120,-316,271,-383r0,-24v-151,-67,-273,-165,-271,-383r0,-175v3,-176,-64,-270,-239,-266r-80,0r0,-138r116,0v242,0,385,139,382,387r0,149","w":984},"~":{"d":"1356,-927v-4,212,-60,390,-183,485v-85,66,-265,49,-342,-10v-109,-84,-170,-222,-284,-297v-42,-28,-113,-21,-149,9v-76,63,-90,207,-96,345r-168,0v6,-213,57,-395,186,-487v93,-65,263,-46,342,13v109,81,168,229,284,297v87,50,177,-16,201,-88v25,-73,38,-165,41,-267r168,0","w":1490},"\u0401":{"d":"966,-1677r-201,0r0,-195r201,0r0,195xm553,-1677r-201,0r0,-195r201,0r0,195xm151,0r0,-1489r931,0r0,176r-733,0r0,408r683,0r0,176r-683,0r0,553r733,0r0,176r-931,0","w":1149},"\u0410":{"d":"-10,0r502,-1489r244,0r502,1489r-209,0r-135,-416r-569,0r-135,416r-200,0xm839,-585r-230,-702r-229,702r459,0","w":1228},"\u0411":{"d":"1129,-658v46,116,47,281,-6,393v-56,118,-168,201,-293,237v-172,50,-458,22,-679,28r0,-1489r907,0r0,176r-709,0r0,408v158,1,365,-6,487,17v126,24,248,117,293,230xm932,-324v37,-65,35,-194,2,-265v-64,-133,-196,-150,-408,-145r-177,0r0,565r172,0v216,5,342,-28,411,-155","w":1207},"\u0412":{"d":"882,-827v166,44,278,169,279,370v0,241,-153,376,-335,429v-171,51,-455,22,-675,28r0,-1489r395,0v195,3,272,-1,391,60v99,51,154,137,154,276v0,156,-93,264,-209,318r0,8xm885,-1125v4,-248,-293,-186,-536,-195r0,436r225,0v121,-1,157,-4,228,-49v60,-37,81,-97,83,-192xm955,-449v2,-223,-143,-276,-381,-270r-225,0r0,550r161,0v214,6,347,-28,419,-151v19,-33,26,-76,26,-129","w":1207},"\u0413":{"d":"1034,-1313r-685,0r0,1313r-198,0r0,-1489r883,0r0,176","w":1039},"\u0414":{"d":"99,-176v182,-300,293,-807,289,-1313r831,0r0,1313r141,0r0,513r-188,0r0,-341r-966,0r0,341r-188,0r0,-513r81,0xm574,-1317v-15,448,-117,866,-284,1141r731,0r0,-1141r-447,0","w":1400},"\u0415":{"d":"151,0r0,-1489r931,0r0,176r-733,0r0,408r683,0r0,176r-683,0r0,553r733,0r0,176r-931,0","w":1149},"\u0416":{"d":"1844,0r-244,0r-496,-685r-96,0r0,685r-196,0r0,-685r-98,0r-496,685r-232,0r562,-768v-112,-78,-155,-148,-208,-317v-27,-86,-56,-144,-86,-178v-32,-38,-120,-52,-213,-49r0,-177v282,-6,383,76,462,300v59,168,110,357,309,372r0,-672r196,0r0,674v206,-13,260,-202,319,-374v77,-222,179,-306,462,-300r0,177v-93,-3,-179,13,-215,50v-64,66,-116,308,-182,376v-39,41,-75,79,-117,106","w":1831},"\u0417":{"d":"705,-815v185,40,336,139,331,371v-5,234,-143,371,-328,436v-206,72,-518,20,-677,-50r0,-222r14,0v130,85,360,172,569,114v90,-24,160,-85,194,-158v15,-35,23,-78,23,-130v1,-264,-252,-280,-525,-271r0,-166r136,0v190,1,350,-71,350,-247v0,-288,-476,-219,-635,-111r-64,38r-13,0r0,-219v186,-88,584,-132,766,-3v88,63,150,136,150,274v0,174,-135,299,-291,329r0,15","w":1091},"\u0418":{"d":"1221,0r-197,0r0,-1182r-673,1182r-200,0r0,-1489r197,0r0,1163r664,-1163r209,0r0,1489","w":1372},"\u0419":{"d":"1221,0r-197,0r0,-1182r-673,1182r-200,0r0,-1489r197,0r0,1163r664,-1163r209,0r0,1489xm705,-1724v136,0,190,-69,192,-211r178,0v-8,210,-138,334,-370,334v-232,0,-362,-124,-370,-334r178,0v2,141,58,211,192,211","w":1372},"\u041a":{"d":"1252,0r-252,0r-526,-682r-125,0r0,682r-198,0r0,-1489r198,0r0,671v235,-1,292,-191,353,-371v77,-225,184,-308,472,-300r0,177v-93,-3,-182,11,-221,48v-65,59,-118,308,-182,372v-37,38,-75,78,-123,109","w":1234},"\u041b":{"d":"15,-192v70,8,136,-4,172,-42v43,-47,79,-124,99,-238v48,-255,53,-686,64,-1017r887,0r0,1489r-198,0r0,-1313r-502,0r-16,413v-14,305,-25,544,-135,727v-69,116,-177,196,-371,173r0,-192","w":1388},"\u041c":{"d":"1427,0r-198,0r0,-1283r-388,873r-120,0r-385,-873r0,1283r-185,0r0,-1489r270,0r372,829r359,-829r275,0r0,1489","w":1578},"\u041d":{"d":"1232,0r-198,0r0,-729r-685,0r0,729r-198,0r0,-1489r198,0r0,584r685,0r0,-584r198,0r0,1489","w":1383},"\u041e":{"d":"724,-1520v337,0,525,181,612,445v61,186,63,470,1,658v-86,267,-276,448,-613,448v-338,0,-525,-182,-612,-447v-61,-186,-60,-475,0,-658v88,-262,274,-446,612,-446xm725,-140v308,0,456,-257,452,-604v-3,-275,-82,-479,-265,-566v-105,-52,-271,-51,-376,-2v-178,86,-265,296,-264,568v0,195,41,345,123,448v82,104,192,156,330,156","w":1449},"\u041f":{"d":"1232,0r-198,0r0,-1313r-685,0r0,1313r-198,0r0,-1489r1081,0r0,1489","w":1383},"\u0420":{"d":"1044,-1252v58,105,64,276,12,396v-85,198,-252,302,-539,301r-168,0r0,555r-198,0r0,-1489v279,7,596,-32,763,93v54,40,99,86,130,144xm885,-1035v0,-215,-145,-288,-372,-284r-164,0r0,595v186,0,365,7,452,-89v53,-58,84,-118,84,-222","w":1129},"\u0421":{"d":"734,-144v205,0,344,-95,447,-193r15,0r0,236v-134,63,-261,130,-463,128v-334,-5,-528,-176,-618,-437v-63,-182,-66,-478,-1,-659v91,-257,283,-447,622,-447v195,0,332,56,460,126r0,239r-16,0v-106,-96,-237,-203,-446,-196v-324,11,-462,261,-462,604v0,281,97,472,284,561v55,27,115,38,178,38","w":1230},"\u0422":{"d":"499,0r0,-1313r-500,0r0,-176r1198,0r0,176r-500,0r0,1313r-198,0","w":1196},"\u0423":{"d":"143,-185v72,3,180,17,244,-10v73,-31,103,-114,135,-191r-523,-1103r219,0r404,876r365,-876r204,0r-540,1254v-63,143,-152,238,-345,240r-163,-5r0,-185","w":1178},"\u0424":{"d":"668,-165v-364,-19,-602,-209,-602,-595v0,-284,136,-453,345,-538v77,-31,163,-47,257,-50r0,-165r197,0r0,165v285,10,481,137,563,352v52,136,50,348,-3,482v-84,213,-283,336,-560,349r0,181r-197,0r0,-181xm865,-315v271,-12,396,-171,396,-453v0,-263,-131,-422,-396,-427r0,880xm668,-1195v-265,4,-396,165,-396,427v0,282,126,440,396,453r0,-880","w":1533},"\u0425":{"d":"1181,0r-227,0r-363,-596r-369,596r-214,0r473,-745r-459,-744r226,0r356,585r361,-585r215,0r-466,734","w":1189},"\u0426":{"d":"1363,337r-188,0r0,-337r-1024,0r0,-1489r198,0r0,1315r675,0r0,-1315r198,0r0,1315r141,0r0,511","w":1403},"\u0427":{"d":"576,-732v119,0,287,-33,377,-68r0,-689r198,0r0,1489r-198,0r0,-630v-145,46,-247,80,-416,80v-283,0,-444,-142,-444,-427r0,-512r198,0r0,413v-11,233,59,344,285,344","w":1302},"\u0428":{"d":"1781,0r-1630,0r0,-1489r198,0r0,1317r518,0r0,-1317r198,0r0,1317r518,0r0,-1317r198,0r0,1489","w":1932},"\u0429":{"d":"1922,337r-188,0r0,-337r-1583,0r0,-1489r198,0r0,1317r518,0r0,-1317r198,0r0,1317r518,0r0,-1317r198,0r0,1317r141,0r0,509","w":1962},"\u042a":{"d":"1338,-658v46,116,47,281,-6,393v-56,118,-168,200,-293,237v-164,48,-439,22,-652,28r0,-1313r-388,0r0,-176r586,0r0,584v150,1,346,-4,460,17v126,25,248,117,293,230xm1142,-324v36,-65,34,-194,0,-265v-63,-133,-195,-150,-407,-145r-150,0r0,565r145,0v216,5,342,-28,412,-155","w":1412},"\u042b":{"d":"1097,-658v46,116,47,281,-6,393v-56,118,-168,200,-293,237v-163,48,-436,22,-647,28r0,-1489r198,0r0,584v148,1,343,-4,455,17v126,25,248,117,293,230xm900,-324v37,-65,35,-194,2,-265v-64,-133,-196,-150,-408,-145r-145,0r0,565r140,0v216,5,342,-28,411,-155xm1464,0r-198,0r0,-1489r198,0r0,1489","w":1615},"\u042c":{"d":"1119,-658v46,116,47,281,-6,393v-56,118,-168,201,-293,237v-169,49,-451,22,-669,28r0,-1489r198,0r0,584v155,1,358,-5,477,17v126,24,248,117,293,230xm922,-324v37,-65,35,-194,2,-265v-64,-133,-196,-150,-408,-145r-167,0r0,565r162,0v216,5,342,-28,411,-155","w":1193},"\u042d":{"d":"486,-1516v446,1,676,301,676,766v0,444,-258,777,-678,777v-169,0,-327,-38,-441,-91r0,-219r15,0v91,83,249,142,420,142v299,0,492,-254,485,-571r-726,0r0,-173r716,0v-25,-268,-195,-463,-475,-463v-174,0,-319,60,-416,144r-15,0r0,-220v107,-49,278,-93,439,-92","w":1228},"\u042e":{"d":"1230,-1520v422,0,652,320,652,776v0,454,-231,775,-652,775v-418,0,-646,-312,-647,-751r-234,0r0,720r-198,0r0,-1489r198,0r0,596r244,0v40,-368,255,-627,637,-627xm1231,-140v306,0,445,-258,445,-604v0,-197,-40,-348,-120,-450v-81,-104,-189,-155,-325,-155v-310,0,-448,255,-448,605v0,195,40,345,121,448v81,104,190,156,327,156","w":1948},"\u042f":{"d":"473,-622v-191,-67,-315,-193,-315,-443v0,-161,78,-263,173,-334v165,-124,489,-82,770,-90r0,1489r-198,0r0,-592r-225,0r-445,592r-238,0xm366,-1058v-6,218,119,306,339,301r198,0r0,-562r-206,0v-210,-8,-326,72,-331,261","w":1252},"\u0430":{"d":"464,-142v132,0,219,-68,296,-133r0,-310v-87,9,-262,21,-335,46v-93,30,-174,83,-173,203v0,131,78,194,212,194xm490,-1144v288,0,456,98,457,380r0,764r-187,0r0,-119v-103,77,-181,156,-363,150v-209,-7,-339,-144,-339,-355v0,-362,349,-391,702,-411v39,-334,-398,-256,-600,-167r-11,0r0,-191v77,-21,233,-51,341,-51","w":1075},"\u0431":{"d":"269,-952v91,-63,197,-126,341,-126v306,0,455,210,455,529v0,267,-130,455,-311,541v-113,52,-268,49,-384,2v-307,-124,-348,-631,-268,-1042v42,-216,137,-364,328,-436v134,-50,372,-68,564,-81r0,173v-287,27,-626,7,-690,262v-14,54,-28,113,-35,178xm570,-132v209,-2,304,-180,304,-406v0,-222,-99,-368,-308,-368v-122,0,-220,46,-300,99v-20,287,10,566,195,653v33,16,70,22,109,22","w":1126},"\u0432":{"d":"954,-860v0,118,-75,201,-161,242r5,7v117,30,214,125,214,273v0,181,-120,286,-258,320v-170,41,-415,11,-618,18r0,-1117r410,0v152,2,201,-2,293,46v73,39,115,105,115,211xm761,-831v2,-192,-257,-122,-439,-136r0,306r216,0v90,-1,108,-3,162,-34v43,-26,60,-70,61,-136xm799,-250v26,-41,26,-137,3,-178v-38,-67,-134,-87,-259,-87r-221,0r0,365r163,0v157,3,258,-13,314,-100","w":1074},"\u0433":{"d":"846,-952r-522,0r0,952r-188,0r0,-1117r710,0r0,165","w":850},"\u0434":{"d":"82,-160v132,-219,219,-588,216,-957r685,0r0,957r111,0r0,428r-175,0r0,-271r-736,0r0,271r-175,0r0,-428r74,0xm475,-959v-14,311,-90,605,-208,799r528,0r0,-799r-320,0","w":1143},"\u0435":{"d":"619,-138v160,0,283,-67,373,-135r11,0r0,205r-82,32v-99,37,-170,61,-300,62v-358,2,-562,-215,-562,-578v0,-405,303,-702,701,-566v176,60,266,228,264,477r0,102r-774,0v-3,249,130,401,369,401xm841,-683v-6,-194,-79,-309,-276,-310v-155,-1,-239,80,-287,185v-16,36,-24,78,-28,125r591,0","w":1078},"\u0436":{"d":"1492,0r-227,0r-351,-514r-73,0r0,514r-186,0r0,-514r-73,0r-357,514r-217,0r421,-585v-80,-46,-121,-110,-155,-219v-36,-118,-77,-157,-228,-151r0,-162v214,-7,316,59,378,225v44,119,80,258,231,264r0,-489r186,0r0,489v149,-8,190,-144,233,-264v59,-165,159,-233,376,-225r0,162v-144,-6,-193,34,-228,151v-31,102,-76,168,-150,213","w":1496},"\u0437":{"d":"664,-584v117,42,212,120,212,275v0,392,-572,388,-844,245r0,-208r12,0v109,108,377,191,555,97v59,-31,84,-63,85,-148v5,-201,-209,-178,-406,-178r0,-162v172,-9,387,37,382,-163v-3,-123,-108,-157,-228,-157v-135,0,-257,40,-333,105r-12,0r0,-203v169,-66,454,-96,619,1v77,45,146,120,146,239v0,126,-82,225,-188,250r0,7","w":937},"\u0438":{"d":"1018,0r-186,0r0,-833r-526,833r-170,0r0,-1117r186,0r0,820r520,-820r176,0r0,1117","w":1154},"\u0439":{"d":"605,-1382v128,0,168,-99,167,-254r162,0v1,174,-67,300,-183,354v-73,35,-213,35,-289,0v-122,-57,-186,-179,-187,-354r162,0v1,156,35,254,168,254xm1018,0r-186,0r0,-833r-526,833r-170,0r0,-1117r186,0r0,820r520,-820r176,0r0,1117","w":1154},"\u043a":{"d":"1035,0r-234,0r-383,-515r-94,0r0,515r-188,0r0,-1117r188,0r0,486v119,-5,171,-45,212,-145v43,-104,87,-241,168,-290v64,-39,149,-55,254,-51r0,162v-144,-6,-193,34,-228,151v-31,102,-76,165,-150,210","w":1020},"\u043b":{"d":"15,-164v54,5,102,-1,130,-31v32,-34,58,-90,73,-171v34,-183,39,-511,47,-751r736,0r0,1117r-188,0r0,-959r-384,0r-12,298v-15,304,-31,553,-238,648v-44,20,-105,15,-164,13r0,-164","w":1137},"\u043c":{"d":"1172,0r-186,0r0,-878r-268,570r-140,0r-266,-570r0,878r-176,0r0,-1117r227,0r294,620r284,-620r231,0r0,1117","w":1308},"\u043d":{"d":"1018,0r-188,0r0,-503r-506,0r0,503r-188,0r0,-1117r188,0r0,452r506,0r0,-452r188,0r0,1117","w":1153},"\u043e":{"d":"557,-1148v321,0,498,244,498,590v0,348,-176,587,-498,589v-324,2,-500,-249,-500,-589v0,-346,180,-590,500,-590xm557,-131v221,0,304,-176,304,-427v0,-255,-80,-428,-304,-428v-224,0,-306,173,-306,428v0,249,85,427,306,427","w":1112},"\u043f":{"d":"1018,0r-188,0r0,-955r-506,0r0,955r-188,0r0,-1117r882,0r0,1117","w":1154},"\u0440":{"d":"666,-1148v280,0,407,255,407,560v0,333,-173,610,-471,610v-124,0,-194,-29,-278,-78r0,468r-188,0r0,-1529r188,0r0,117v85,-74,193,-148,342,-148xm571,-147v218,0,311,-176,308,-420v-2,-226,-53,-402,-259,-402v-125,0,-219,64,-296,127r0,633v89,42,134,62,247,62","w":1132},"\u0441":{"d":"577,-138v136,0,246,-65,322,-136r11,0r0,211v-100,45,-188,90,-330,88v-352,-6,-521,-220,-521,-582v0,-283,110,-460,309,-547v173,-74,409,-28,542,47r0,211r-11,0v-76,-63,-184,-134,-322,-134v-215,0,-323,183,-323,423v0,240,102,419,323,419","w":945},"\u0442":{"d":"952,-952r-380,0r0,952r-188,0r0,-952r-380,0r0,-165r948,0r0,165","w":956},"\u0443":{"d":"1014,-1117r-601,1529r-201,0r200,-466r-406,-1063r203,0r305,827r304,-827r196,0","w":1020},"\u0444":{"d":"1089,-1142v274,3,408,253,405,554v-2,274,-95,474,-271,566v-81,42,-189,54,-271,14r-81,-41r0,461r-186,0r0,-461v-68,31,-98,67,-209,65v-279,-6,-418,-258,-414,-571v3,-266,98,-455,270,-547v50,-28,104,-40,159,-40v82,-1,142,35,194,67r0,-481r186,0r0,481v54,-33,134,-68,218,-67xm1023,-145v203,-8,278,-185,278,-422v0,-127,-23,-227,-65,-302v-55,-99,-162,-132,-282,-97r-83,29r0,745v49,20,77,49,152,47xm516,-145v70,1,118,-27,169,-47r0,-745v-46,-20,-89,-45,-152,-43v-203,7,-278,173,-278,416v0,130,23,232,67,307v46,75,110,112,194,112","w":1556},"\u0445":{"d":"1004,0r-231,0r-271,-422r-279,422r-213,0r388,-554r-384,-563r231,0r269,418r276,-418r214,0r-386,550","w":1014},"\u0446":{"d":"1122,268r-175,0r0,-268r-811,0r0,-1117r188,0r0,955r499,0r0,-955r188,0r0,955r111,0r0,430","w":1171},"\u0447":{"d":"515,-539v89,0,204,-22,273,-44r0,-534r188,0r0,1117r-188,0r0,-436v-105,34,-209,61,-335,61v-223,0,-358,-112,-357,-341r0,-401r188,0r0,303v-9,186,50,275,231,275","w":1112},"\u0448":{"d":"1458,0r-1322,0r0,-1117r188,0r0,958r379,0r0,-958r188,0r0,958r379,0r0,-958r188,0r0,1117","w":1594},"\u0449":{"d":"1569,268r-175,0r0,-268r-1258,0r0,-1117r188,0r0,958r379,0r0,-958r188,0r0,958r379,0r0,-958r188,0r0,958r111,0r0,427","w":1618},"\u044a":{"d":"1093,-495v39,88,38,211,-3,296v-44,89,-133,152,-230,178v-148,40,-386,15,-572,21r0,-952r-284,0r0,-165r472,0r0,435r196,0v170,2,235,6,334,77v39,29,68,65,87,110xm928,-343v0,-172,-132,-193,-324,-187r-128,0r0,380r124,0v156,2,257,-13,310,-102v13,-23,18,-54,18,-91","w":1164},"\u044b":{"d":"936,-495v39,88,38,211,-4,296v-43,89,-132,152,-229,178v-147,40,-383,15,-567,21r0,-1117r188,0r0,435r191,0v170,2,235,6,334,77v39,29,68,65,87,110xm771,-343v0,-172,-132,-193,-324,-187r-123,0r0,380r119,0v156,2,257,-13,309,-102v14,-23,19,-54,19,-91xm1283,0r-188,0r0,-1117r188,0r0,1117","w":1419},"\u044c":{"d":"953,-495v39,88,38,211,-3,296v-44,89,-133,152,-230,178v-152,41,-394,15,-584,21r0,-1117r188,0r0,435r208,0v170,2,235,6,334,77v39,29,68,65,87,110xm788,-343v0,-172,-132,-193,-324,-187r-140,0r0,380r136,0v156,2,257,-13,310,-102v13,-23,18,-54,18,-91","w":1025},"\u044d":{"d":"372,25v-121,0,-245,-40,-330,-75r0,-206r12,0v83,63,183,120,331,120v213,0,318,-158,331,-378r-508,0r0,-151r507,0v-18,-191,-129,-317,-319,-317v-146,0,-244,61,-325,128r-12,0r0,-206v70,-29,227,-85,333,-83v252,4,407,122,474,313v25,68,37,151,37,249v0,353,-194,606,-531,606","w":965},"\u044e":{"d":"1009,-1148v326,-2,494,252,494,590v0,346,-175,587,-494,589v-308,2,-477,-229,-488,-539r-197,0r0,508r-188,0r0,-1117r188,0r0,455r201,0v24,-281,195,-485,484,-486xm1009,-131v219,0,300,-175,300,-427v0,-251,-81,-428,-300,-428v-220,0,-302,179,-302,428v0,247,84,427,302,427","w":1560},"\u044f":{"d":"380,-460v-170,-51,-268,-136,-268,-339v0,-120,59,-199,135,-251v149,-103,454,-58,698,-67r0,1117r-188,0r0,-443r-186,0r-331,443r-219,0xm305,-793v-7,157,100,202,254,202r198,0r0,-376r-204,0v-150,-5,-242,41,-248,174","w":1081},"\u0451":{"d":"880,-1304r-201,0r0,-195r201,0r0,195xm467,-1304r-201,0r0,-195r201,0r0,195xm619,-138v160,0,283,-67,373,-135r11,0r0,205r-82,32v-99,37,-170,61,-300,62v-358,2,-562,-215,-562,-578v0,-405,303,-702,701,-566v176,60,266,228,264,477r0,102r-774,0v-3,249,130,401,369,401xm841,-683v-6,-194,-79,-309,-276,-310v-155,-1,-239,80,-287,185v-16,36,-24,78,-28,125r591,0","w":1078}}});